weights
0.0
0.0
0.0
0.0
0.0
0.0
0.0
0.0
0.0
0.0
0.0
0.0
0.0
0.0
0.0
0.0
0.0
0.0
0.0
0.0
0.0
0.0
0.0
0.0
0.0
0.0
0.0
0.0
0.0
0.0
0.0
0.0
0.0
0.0
0.0
0.0
0.0
0.0
0.0
0.0
0.0
0.0
0.0
0.0
0.0
0.0
0.0
0.0
0.0
0.0
0.0
0.0
0.0
0.0
0.0
0.0
0.0
0.0
0.0
0.0
0.0
0.0
0.0
0.0
0.0
0.0
0.0
0.0
0.0
0.0
0.0
0.0
0.0
0.0
0.0
0.0
0.0
0.0
0.0
0.0
0.0
0.0
0.0
0.0
0.0
0.0
0.0
0.0
0.0
0.0
0.0
0.0
0.0
0.0
0.0
0.0
0.0
0.037838888739886854
0.037838888739886875
0.07732396182635023
0.06692901468884736
0.06796041130213039
0.054344157627155346
0.0
0.0
0.0
0.0
0.0
0.0
0.0
0.0
0.0
0.0
0.0
0.0
0.0
0.0
0.0
0.0
0.07394095679741493
0.07394095679741486
0.07394095679741475
0.07394095679741494
0.03084514028861906
0.08574497406084985
0.10083177537737878
0.12559707912300616
0.15450482095737098
0.19292844166085873
0.22666014439200116
0.1981795865820279
0.17679981084782295
0.08767429872050013
0.041982309933019796
0.039247940816177204
0.0
0.0
0.0
0.0
0.0
0.0
0.0
0.0
0.0
0.0
0.036353979945661176
0.03480460761775971
0.04861343474996236
-0.011735623120354156
-0.07166986803553368
-0.2210872365225659
0.021330807976641455
0.180579925705469
0.10716126445237599
0.06245893147865868
0.1275497368423907
0.1488854666833767
0.3029454746223937
0.336640357895909
0.2955920491152251
0.24645103746755254
0.17070074481308872
0.07321454823746935
0.05662509825714278
0.04524740638738007
0.0
0.0
0.0
0.0
0.0
0.0
0.0
0.0
-0.03888966929568187
0.03862454887637679
0.013266814505117974
-0.14325535691039426
-0.27504078362210327
-0.3489467823262048
-0.1481598175549202
-0.181717745751549
-0.16601610202936953
-0.137359849314394
-0.1531550306977153
-0.10060658092550373
0.027946399918838224
0.1206398669469993
0.01595072963066783
0.021691370065770217
-0.014294270667045196
-0.07135780417893038
0.050953899900347016
0.04524740638738006
0.0
0.0
0.0
0.0
0.0
0.007018493363787871
0.016229209402652253
0.016232847102857
0.01850353346678553
-0.02712696587951339
-0.007934340245986106
-0.19011831359690637
-0.2927784720434595
-0.3882912319782225
-0.2655221070725975
-0.2880273865093895
-0.1223420971013283
0.010194945264454988
-0.09806132461962291
-0.27076051653350025
-0.29546245676004634
-0.10025358522737898
-0.07831253447472218
-0.0014603692060935329
-0.0043197310365121035
-0.0438157706353058
0.034381775570980905
0.0
0.0
0.0
0.0
0.0
0.0
-0.036488664434108864
-0.012585922347213414
0.0009287009359277204
0.007140563482975548
-0.02036620849775894
-0.0026741379475785348
-0.03044982806207271
-0.21512295818482952
-0.2709400797069461
-0.12322510750696157
-0.08672837547356914
-0.10446740689466931
0.007437202242430741
0.03768752559934267
-0.04884630841050883
-0.10320585816911604
-0.028245559558742844
-0.051013163080093946
0.0001289197551556661
0.0073194280474018015
0.025190512148038264
0.014593781125326166
0.0
0.0
0.0
0.0
0.0
-0.09835079078080944
-0.044654619831996006
-0.055966675858238384
-0.041859328189865444
-0.051662905641596056
-0.042251819254556115
-0.000772422363311089
-0.004333602524738745
0.0023141445208886974
-0.15582658617991463
-0.06985855775674259
-0.016345849989383827
-0.0722890611056875
0.12154037349187699
0.15420558108405522
-0.03905425032841089
-0.1528233806882664
-0.08159277937578975
-0.009098645139480263
0.02612615602384522
0.004330616713448962
0.019540996385126002
0.015822428723838527
0.0
0.0
0.0
0.0
0.0
-0.09835079078080904
-0.034029417140551306
-0.050965073425378656
-0.031409502232563107
-0.04206034098048976
-0.02602925759049946
-0.09971481960793768
-0.08795801197509158
-0.14697620018556717
-0.16160379399267524
-0.13642202803152798
-0.06143567937711544
-0.03143769146188465
0.19673644051989067
0.12840742948174427
-0.16424995178064405
-0.1514300543529502
-0.08930230627779694
-0.010885996657881614
-0.026683086045156207
0.02900684441934486
0.02368561629229936
0.016711355480950825
0.015408455210623945
0.0
0.0
0.0
0.0
0.0025134738702109497
-0.08898812918435638
-0.06766586467641397
-0.04322989551316312
-0.040895243595781096
-0.010683411716843935
-0.10740907769535026
-0.1366599442851436
-0.16831833574879124
-0.1974311981679519
-0.19300839231463945
-0.06173812803510365
0.18102376531475065
0.17083265385058702
0.1124527597292958
-0.14594137703265464
-0.10927865500484817
-0.16216218990650677
-0.10029052296928836
-0.06344294370835374
-0.012011115548801276
0.0016230857181206695
0.020778801653962113
0.01540845521062394
0.0
0.0
0.0
0.0
0.0025134738702109493
-0.17175353153530948
-0.09079414230339505
-0.06689774480647862
-0.09082054570620643
-0.020449226416220517
-0.11609407071041726
-0.0635663755985661
0.004321183521684408
-0.09114887317359578
-0.11993277290332412
0.06877704093138853
0.26333424240833114
0.32925754261213386
0.24900976853199697
-0.05205936714143182
-0.06725534291542584
-0.18155069653550784
-0.07403262562654149
-0.04425297376906762
-0.05834380374638704
-0.024887590090930466
0.014131673712122482
0.015408455210623952
0.0
0.0
0.0
0.0
0.0
-0.0938412275353309
-0.0042390298246901235
-0.05708524850572557
-0.06832099389689081
0.006294943102981283
-0.11703910377255845
-0.0633003712184192
-0.020681255370447092
-0.20147478223131182
-0.07724928274334812
0.10746455981102646
0.3550893227290756
0.3115021493067416
0.1990443312192922
-0.08711787554052942
-0.08884253056986993
-0.17306438874376978
-0.046040743381409066
-0.05981520779128175
-0.07504577635025077
-0.03658144408775614
-0.04028176825620728
0.0
0.0
0.0
0.0
0.0
0.0
0.02674770318046023
0.08893129447151615
-0.053933774557114594
-0.0023478056605015876
0.019504317180583333
-0.059983346045444245
-0.06359757852677121
-0.008807179147994752
0.028531382672162552
0.12247271034992922
0.08272594097785312
0.39801548409219356
0.28687946115694374
0.03746979117384617
-0.11038695493887016
-0.09418970318982284
-0.15945624751619955
-0.061999567529275434
-0.09719825145461833
-0.13989302877801005
-0.04428802476027799
-0.08367980620523514
0.0123117601577022
0.0
0.0
0.0
0.0
0.0
0.05905996753549511
0.01077012297467123
-0.010876685779044826
-0.04857618319798603
-0.0531581174687265
-0.025908679796207486
-0.002953791293764191
0.04530590219479623
0.07944739462281136
-0.03264590198329186
0.06956889471255599
0.35735236260991926
0.1916561435516385
-0.07986393356010393
-0.15306027433087352
-0.06074522885787627
-0.08025395064801859
-0.06689919727979159
-0.08465859406723404
-0.12028399596956549
-0.05644523185876357
-0.03153892814339866
0.01231176015770214
0.0
0.0
0.0
0.0
0.0
0.06401909471183019
0.0037992420621904494
0.0034840835707325595
-0.02364524175000585
-0.040250476136497224
-0.021179699918518504
-0.10537251894232616
-0.00976488438674715
-0.018046156203677367
-0.11615108542678602
-0.05345895325378111
-0.0012143731184452592
0.15925921793917885
-0.0006291431721533107
-0.1470321347982489
-0.11209631204874863
-0.10883988248346214
-0.04774123508288347
-0.06562803073123537
-0.0770160031445522
-0.05056963323996049
-0.04594176234452391
0.0
0.0
0.0
0.0
0.0
0.0
0.0
0.0028601262021744366
0.002860126202174437
0.033252768726627975
-0.022742668979365912
-0.010862941618779402
-0.09522200478059244
-0.20446196291589117
-0.09448682981997969
-0.08378275524733379
-0.22249510652712343
-0.08594923649274847
0.16061468385150102
-0.05949738748751368
-0.15467217435334554
-0.12497361169495344
-0.060233193365814966
0.04268443210984626
-0.0726128380104106
-0.09005885121939204
-0.03127741698430899
-0.018670828779668542
-0.01867082877966855
0.0
0.0
0.0
0.0
0.0
0.0
0.0
0.0
0.0
-0.005338943692714134
-0.04652910724058759
-0.09062286370397693
-0.06860914760132301
0.03460479848287951
-0.010854826381425148
-0.1328980434248819
-0.027276737180495725
0.1859619865103186
-0.05900876319477339
0.004074750287114981
-0.05322935244777299
0.022342435081603173
0.09345483319687449
-0.04664239207558674
-0.07868211625341257
-0.02374149227543291
-0.018670828779668556
-0.018670828779668556
0.0
0.0
0.0
0.0
0.0
0.0
0.0
0.0
-0.0315502656305796
-0.03155026563057962
-0.03621026955720549
0.020204614414806196
0.023441543587819202
0.06604107114757043
0.06663003375239018
-0.04986736371502167
0.09985026082428779
0.08584244889511587
-0.026563628670451086
0.2376134242525946
0.0638859871436371
0.07729625643706345
0.12707174062060606
0.044336328488813456
0.026504084333592384
-0.031550265630579624
0.0
0.0
0.0
0.0
0.0
0.0
0.0
0.0
0.0
0.0
-0.03155026563057962
0.017046606886645697
0.062138815686156396
0.05246611145099755
0.058261688631348355
0.06001308932466741
0.1456005655067845
-0.01475958264745085
0.0004597431787330952
0.09435091641659103
0.013352044385798078
0.29948187564498857
0.15357432202036195
0.16356317466765377
0.03823727599764182
0.05086091973218192
0.06474598572129135
-0.014391387063121725
0.0
0.0
0.0
0.0
0.0
0.0
0.0
0.0
0.0
0.0
0.020781276049654775
0.1691766266139974
0.10662952026357643
0.06165527135244564
0.043812271222785984
0.08645320431292494
0.1526769092223593
-0.04409984263913331
0.06479720076754843
-0.002372891947322457
0.1423407841395563
0.30482055041481176
0.19299287935161152
0.16913048513744383
0.02902576100991862
0.039757407347261256
0.05388254876673697
-0.014391387063121722
0.0
0.0
0.0
0.04120351588849123
0.0
0.0
0.0
0.0
0.0
0.0059848927819537686
0.028515155759587803
0.11671444140270944
0.11356406728773982
0.0788705986056205
0.04953963787825754
0.12115378849460876
0.047776234308148924
-0.04752467091177094
0.06840545898633416
0.04292271106631451
0.10411134565398401
0.2634991501187342
0.1890077380389154
0.08830984623595826
0.05424762781275844
0.04445974654386409
0.058263556332313345
-0.014391387063121722
0.0
0.0
0.0
0.0
0.0
0.0
0.0
0.0
0.0
-0.03294991371169341
0.005055724322480169
0.007236320277134719
0.00020433796361180745
-0.06544743956770269
0.09094358408069114
0.05505208869006368
-0.11178258671067336
0.03742567217015671
-0.08808761278403916
-0.03167822053658098
0.005667890679080347
0.09496596724130012
0.16972633331070533
0.08013968035500246
0.004752119988573166
0.03517788152694382
0.07414758061333278
0.0
0.0
0.0
0.0
0.0
0.0
0.0
0.0
0.0
0.0
-0.05275295900368638
-0.07284541051549691
-0.06945288630862953
-0.06050055705315173
-0.12720255756096593
-0.0356276054561531
-0.16721296165523375
-0.27398287123383486
-0.0010718577506620235
-0.19241525271982338
-0.31074133837981355
-0.18081155825294293
-0.028746415027726895
0.00013742828996470618
0.039325804140299826
-0.03952679443001051
-0.030581122873833046
0.11732842790985568
0.0
0.0
0.0
0.0
0.0
0.0
0.0
0.0
0.0
0.0
-0.04173908015165732
-0.07436027950827052
-0.14972237653891118
-0.15903528243292825
-0.20278042910153313
-0.03234363505556683
-0.10656880984933424
-0.18562262259621307
-0.08190861211216556
-0.11776343408129503
-0.28127401663726165
-0.3344389019306653
-0.18773744994286357
-0.12067739843916632
-0.01670240571754474
-0.031124836160145265
0.0028601262021744366
0.0
0.0
0.0
0.0
0.0
0.0
0.0
0.0
0.0
0.0
0.0
-0.030635214185290964
-0.05361502988702481
-0.02509630925073929
0.006158544807397917
0.021534371842652226
0.04855165077407045
0.05475143812130139
0.0500702687182786
-0.05685448795060898
-0.14127861425031174
-0.0171384345465617
0.03715963557200356
-0.05002071909470644
-0.10162584828011798
-0.01890205001992386
-0.03129536294963441
0.0
0.0
0.0
0.0
0.0
0.0
0.0
0.0
0.0
0.0
0.0
0.0
0.0
0.011089725491215771
-0.0020724048694662125
-0.004830630601846582
0.009971993632530018
0.0
0.0
0.0
-0.02042191392816964
-0.020421913928169645
-0.018941845081646553
-0.007855601729652637
-0.05742538795998233
-0.03691522940650102
0.0
0.0
0.0
0.0
0.0
0.0
0.0
0.0
0.0
0.0
